<?xml version="1.0" encoding="UTF-8" standalone="yes"?>
<PMML xmlns="http://www.dmg.org/PMML-4_2" version="4.2">
    <Header description="linear regression">
        <Application name="Apache Spark MLlib" version="2.0.1"/>
        <Timestamp>2016-12-14T16:13:17</Timestamp>
    </Header>
    <DataDictionary numberOfFields="4">
        <DataField name="field_0" optype="continuous" dataType="double"/>
        <DataField name="field_1" optype="continuous" dataType="double"/>
        <DataField name="field_2" optype="continuous" dataType="double"/>
        <DataField name="target" optype="continuous" dataType="double"/>
    </DataDictionary>
    <RegressionModel modelName="linear regression" functionName="regression">
        <MiningSchema>
            <MiningField name="field_0" usageType="active"/>
            <MiningField name="field_1" usageType="active"/>
            <MiningField name="field_2" usageType="active"/>
            <MiningField name="target" usageType="target"/>
        </MiningSchema>
        <RegressionTable intercept="0.0">
            <NumericPredictor name="field_0" coefficient="0.006913942000254928"/>
            <NumericPredictor name="field_1" coefficient="6.525776868104444E-5"/>
            <NumericPredictor name="field_2" coefficient="7.489349294553797E-4"/>
        </RegressionTable>
    </RegressionModel>
</PMML>
